<?xml version="1.0"?>
<opencv_storage>
<cascade>
  <stageType>BOOST</stageType>
  <featureType>HAAR</featureType>
  <height>24</height>
  <width>24</width>
  <stageParams>
    <boostType>GAB</boostType>
    <minHitRate>9.9900001287460327e-01</minHitRate>
    <maxFalseAlarm>5.0000000000000000e-01</maxFalseAlarm>
    <weightTrimRate>9.4999999999999996e-01</weightTrimRate>
    <maxDepth>1</maxDepth>
    <maxWeakCount>100</maxWeakCount></stageParams>
  <featureParams>
    <maxCatCount>0</maxCatCount>
    <featSize>1</featSize>
    <mode>ALL</mode></featureParams>
  <stageNum>14</stageNum>
  <stages>
    <!-- stage 0 -->
    <_>
      <maxWeakCount>2</maxWeakCount>
      <stageThreshold>-8.9582726359367371e-02</stageThreshold>
      <weakClassifiers>
        <_>
          <internalNodes>
            0 -1 4 1.1008775234222412e-01</internalNodes>
          <leafValues>
            -9.7488665580749512e-01 9.3047910928726196e-01</leafValues></_>
        <_>
          <internalNodes>
            0 -1 10 2.3480039834976196e-01</internalNodes>
          <leafValues>
            -9.6114557981491089e-01 8.8530391454696655e-01</leafValues></_></weakClassifiers></_>
    <!-- stage 1 -->
    <_>
      <maxWeakCount>3</maxWeakCount>
      <stageThreshold>-1.2707148790359497e+00</stageThreshold>
      <weakClassifiers>
        <_>
          <internalNodes>
            0 -1 53 5.4472349584102631e-02</internalNodes>
          <leafValues>
            -9.7732752561569214e-01 8.6858475208282471e-01</leafValues></_>
        <_>
          <internalNodes>
            0 -1 85 1.4731594920158386e-01</internalNodes>
          <leafValues>
            -9.1148000955581665e-01 6.5845322608947754e-01</leafValues></_>
        <_>
          <internalNodes>
            0 -1 54 -1.8259938806295395e-02</internalNodes>
          <leafValues>
            6.1809265613555908e-01 -9.1653895378112793e-01</leafValues></_></weakClassifiers></_>
    <!-- stage 2 -->
    <_>
      <maxWeakCount>3</maxWeakCount>
      <stageThreshold>-1.2436075210571289e+00</stageThreshold>
      <weakClassifiers>
        <_>
          <internalNodes>
            0 -1 72 -5.5449940264225006e-02</internalNodes>
          <leafValues>
            7.3269039392471313e-01 -9.3924844264984131e-01</leafValues></_>
        <_>
          <internalNodes>
            0 -1 11 1.1740634590387344e-01</internalNodes>
          <leafValues>
            -9.2076885700225830e-01 6.0891443490982056e-01</leafValues></_>
        <_>
          <internalNodes>
            0 -1 24 -3.8335509598255157e-02</internalNodes>
          <leafValues>
            6.1640983819961548e-01 -9.1326773166656494e-01</leafValues></_></weakClassifiers></_>
    <!-- stage 3 -->
    <_>
      <maxWeakCount>4</maxWeakCount>
      <stageThreshold>-2.0570945739746094e+00</stageThreshold>
      <weakClassifiers>
        <_>
          <internalNodes>
            0 -1 57 2.2923564910888672e-01</internalNodes>
          <leafValues>
            -9.1916984319686890e-01 7.3755198717117310e-01</leafValues></_>
        <_>
          <internalNodes>
            0 -1 37 2.0438817143440247e-01</internalNodes>
          <leafValues>
            -9.1628926992416382e-01 6.1642307043075562e-01</leafValues></_>
        <_>
          <internalNodes>
            0 -1 51 4.1900901123881340e-03</internalNodes>
          <leafValues>
            -7.9532051086425781e-01 6.8323004245758057e-01</leafValues></_>
        <_>
          <internalNodes>
            0 -1 15 2.1717779338359833e-02</internalNodes>
          <leafValues>
            -8.6110740900039673e-01 5.7368510961532593e-01</leafValues></_></weakClassifiers></_>
    <!-- stage 4 -->
    <_>
      <maxWeakCount>5</maxWeakCount>
      <stageThreshold>-1.7031950950622559e+00</stageThreshold>
      <weakClassifiers>
        <_>
          <internalNodes>
            0 -1 82 4.7789167612791061e-02</internalNodes>
          <leafValues>
            -8.6840134859085083e-01 6.1092895269393921e-01</leafValues></_>
        <_>
          <internalNodes>
            0 -1 39 -6.5810158848762512e-03</internalNodes>
          <leafValues>
            6.1765503883361816e-01 -8.2138502597808838e-01</leafValues></_>
        <_>
          <internalNodes>
            0 -1 70 2.0307217538356781e-01</internalNodes>
          <leafValues>
            -8.7475466728210449e-01 5.5680888891220093e-01</leafValues></_>
        <_>
          <internalNodes>
            0 -1 21 4.4159725308418274e-02</internalNodes>
          <leafValues>
            -8.7943404912948608e-01 4.6917864680290222e-01</leafValues></_>
        <_>
          <internalNodes>
            0 -1 88 -2.4302095174789429e-02</internalNodes>
          <leafValues>
            3.9216724038124084e-01 -9.3764275312423706e-01</leafValues></_></weakClassifiers></_>
    <!-- stage 5 -->
    <_>
      <maxWeakCount>5</maxWeakCount>
      <stageThreshold>-1.6954032182693481e+00</stageThreshold>
      <weakClassifiers>
        <_>
          <internalNodes>
            0 -1 56 -2.9132389463484287e-03</internalNodes>
          <leafValues>
            5.8558332920074463e-01 -8.1325298547744751e-01</leafValues></_>
        <_>
          <internalNodes>
            0 -1 7 1.5916681289672852e-01</internalNodes>
          <leafValues>
            -9.1273665428161621e-01 5.3357321023941040e-01</leafValues></_>
        <_>
          <internalNodes>
            0 -1 76 1.9100964069366455e-02</internalNodes>
          <leafValues>
            -8.8310754299163818e-01 4.9387863278388977e-01</leafValues></_>
        <_>
          <internalNodes>
            0 -1 36 4.9383275210857391e-02</internalNodes>
          <leafValues>
            -8.9637321233749390e-01 4.1574791073799133e-01</leafValues></_>
        <_>
          <internalNodes>
            0 -1 44 3.9975501596927643e-02</internalNodes>
          <leafValues>
            -8.3864277601242065e-01 4.3308103084564209e-01</leafValues></_></weakClassifiers></_>
    <!-- stage 6 -->
    <_>
      <maxWeakCount>7</maxWeakCount>
      <stageThreshold>-1.9296076297760010e+00</stageThreshold>
      <weakClassifiers>
        <_>
          <internalNodes>
            0 -1 28 1.2624483555555344e-02</internalNodes>
          <leafValues>
            -8.0235552787780762e-01 5.5558317899703979e-01</leafValues></_>
        <_>
          <internalNodes>
            0 -1 19 2.5016576051712036e-02</internalNodes>
          <leafValues>
            -7.8289520740509033e-01 5.4455703496932983e-01</leafValues></_>
        <_>
          <internalNodes>
            0 -1 40 -3.5226577892899513e-03</internalNodes>
          <leafValues>
            5.6851166486740112e-01 -7.5867164134979248e-01</leafValues></_>
        <_>
          <internalNodes>
            0 -1 63 -1.2344957888126373e-01</internalNodes>
          <leafValues>
            4.5870214700698853e-01 -9.2158788442611694e-01</leafValues></_>
        <_>
          <internalNodes>
            0 -1 12 3.4425400197505951e-02</internalNodes>
          <leafValues>
            -7.8101837635040283e-01 4.7408431768417358e-01</leafValues></_>
        <_>
          <internalNodes>
            0 -1 26 -9.4136528670787811e-02</internalNodes>
          <leafValues>
            4.1716790199279785e-01 -8.2547050714492798e-01</leafValues></_>
        <_>
          <internalNodes>
            0 -1 67 3.4358745324425399e-05</internalNodes>
          <leafValues>
            -8.4670227766036987e-01 3.7230086326599121e-01</leafValues></_></weakClassifiers></_>
    <!-- stage 7 -->
    <_>
      <maxWeakCount>9</maxWeakCount>
      <stageThreshold>-2.4149014949798584e+00</stageThreshold>
      <weakClassifiers>
        <_>
          <internalNodes>
            0 -1 60 -5.1186643540859222e-03</internalNodes>
          <leafValues>
            4.7984755039215088e-01 -8.1890839338302612e-01</leafValues></_>
        <_>
          <internalNodes>
            0 -1 8 1.8122130632400513e-01</internalNodes>
          <leafValues>
            -7.5553160905838013e-01 5.0321775674819946e-01</leafValues></_>
        <_>
          <internalNodes>
            0 -1 58 2.8171824291348457e-02</internalNodes>
          <leafValues>
            -8.1199806928634644e-01 4.6735185384750366e-01</leafValues></_>
        <_>
          <internalNodes>
            0 -1 71 3.5647816956043243e-02</internalNodes>
          <leafValues>
            -8.6110323667526245e-01 4.2192381620407104e-01</leafValues></_>
        <_>
          <internalNodes>
            0 -1 78 2.2403359413146973e-02</internalNodes>
          <leafValues>
            -8.6750721931457520e-01 3.4021550416946411e-01</leafValues></_>
        <_>
          <internalNodes>
            0 -1 50 2.2157190833240747e-03</internalNodes>
          <leafValues>
            -5.5387669801712036e-01 5.3678476810455322e-01</leafValues></_>
        <_>
          <internalNodes>
            0 -1 83 -1.9469101971480995e-05</internalNodes>
          <leafValues>
            3.7181878089904785e-01 -7.7803409099578857e-01</leafValues></_>
        <_>
          <internalNodes>
            0 -1 2 3.5399121046066284e-01</internalNodes>
          <leafValues>
            -8.6902433633804321e-01 2.9337581992149353e-01</leafValues></_>
        <_>
          <internalNodes>
            0 -1 29 -3.9754238969180733e-05</internalNodes>
          <leafValues>
            3.0580213665962219e-01 -7.9915541410446167e-01</leafValues></_></weakClassifiers></_>
    <!-- stage 8 -->
    <_>
      <maxWeakCount>7</maxWeakCount>
      <stageThreshold>-1.9564671516418457e+00</stageThreshold>
      <weakClassifiers>
        <_>
          <internalNodes>
            0 -1 49 7.2584920562803745e-03</internalNodes>
          <leafValues>
            -8.5383605957031250e-01 4.6532240509986877e-01</leafValues></_>
        <_>
          <internalNodes>
            0 -1 31 4.4387225061655045e-03</internalNodes>
          <leafValues>
            -7.6072692871093750e-01 4.7349572181701660e-01</leafValues></_>
        <_>
          <internalNodes>
            0 -1 81 -2.8880905359983444e-02</internalNodes>
          <leafValues>
            4.5280310511589050e-01 -7.4060320854187012e-01</leafValues></_>
        <_>
          <internalNodes>
            0 -1 18 6.4368718303740025e-03</internalNodes>
          <leafValues>
            -7.3208010196685791e-01 4.5867002010345459e-01</leafValues></_>
        <_>
          <internalNodes>
            0 -1 20 -8.8726952672004700e-02</internalNodes>
          <leafValues>
            4.4856649637222290e-01 -7.6822155714035034e-01</leafValues></_>
        <_>
          <internalNodes>
            0 -1 62 5.9816870838403702e-02</internalNodes>
          <leafValues>
            -7.8870123624801636e-01 3.8906848430633545e-01</leafValues></_>
        <_>
          <internalNodes>
            0 -1 6 -2.7131896466016769e-02</internalNodes>
          <leafValues>
            3.1918209791183472e-01 -7.9764872789382935e-01</leafValues></_></weakClassifiers></_>
    <!-- stage 9 -->
    <_>
      <maxWeakCount>8</maxWeakCount>
      <stageThreshold>-1.9189625978469849e+00</stageThreshold>
      <weakClassifiers>
        <_>
          <internalNodes>
            0 -1 45 -3.0375686474144459e-03</internalNodes>
          <leafValues>
            4.7733643651008606e-01 -8.0442130565643311e-01</leafValues></_>
        <_>
          <internalNodes>
            0 -1 32 2.7188185602426529e-02</internalNodes>
          <leafValues>
            -7.4923545122146606e-01 4.5978653430938721e-01</leafValues></_>
        <_>
          <internalNodes>
            0 -1 34 9.2441998422145844e-03</internalNodes>
          <leafValues>
            -7.8101974725723267e-01 4.0501236915588379e-01</leafValues></_>
        <_>
          <internalNodes>
            0 -1 22 8.4952622652053833e-02</internalNodes>
          <leafValues>
            -8.3546155691146851e-01 3.7778782844543457e-01</leafValues></_>
        <_>
          <internalNodes>
            0 -1 66 8.3519872277975082e-03</internalNodes>
          <leafValues>
            -8.6282318830490112e-01 3.3360776305198669e-01</leafValues></_>
        <_>
          <internalNodes>
            0 -1 3 2.4608406424522400e-01</internalNodes>
          <leafValues>
            -7.9137456417083740e-01 3.9699128270149231e-01</leafValues></_>
        <_>
          <internalNodes>
            0 -1 75 3.5092525649815798e-05</internalNodes>
          <leafValues>
            -8.4016478061676025e-01 2.5971937179565430e-01</leafValues></_>
        <_>
          <internalNodes>
            0 -1 77 3.4725660952972248e-05</internalNodes>
          <leafValues>
            -8.4549731016159058e-01 2.6085704565048218e-01</leafValues></_></weakClassifiers></_>
    <!-- stage 10 -->
    <_>
      <maxWeakCount>9</maxWeakCount>
      <stageThreshold>-2.3319721221923828e+00</stageThreshold>
      <weakClassifiers>
        <_>
          <internalNodes>
            0 -1 33 3.8907942362129688e-03</internalNodes>
          <leafValues>
            -8.7882179021835327e-01 3.6036035418510437e-01</leafValues></_>
        <_>
          <internalNodes>
            0 -1 68 4.2026536539196968e-03</internalNodes>
          <leafValues>
            -4.9935379624366760e-01 7.7121609449386597e-01</leafValues></_>
        <_>
          <internalNodes>
            0 -1 14 4.6192467212677002e-02</internalNodes>
          <leafValues>
            -6.8530750274658203e-01 4.7695487737655640e-01</leafValues></_>
        <_>
          <internalNodes>
            0 -1 74 -1.9469101971480995e-05</internalNodes>
          <leafValues>
            3.5050278902053833e-01 -7.9739964008331299e-01</leafValues></_>
        <_>
          <internalNodes>
            0 -1 86 5.3069427609443665e-02</internalNodes>
          <leafValues>
            -8.6404788494110107e-01 3.0084171891212463e-01</leafValues></_>
        <_>
          <internalNodes>
            0 -1 17 1.7317381501197815e-01</internalNodes>
          <leafValues>
            -8.2831966876983643e-01 2.9834797978401184e-01</leafValues></_>
        <_>
          <internalNodes>
            0 -1 38 -2.4173534475266933e-03</internalNodes>
          <leafValues>
            3.9098697900772095e-01 -6.4801204204559326e-01</leafValues></_>
        <_>
          <internalNodes>
            0 -1 90 -2.8406355530023575e-02</internalNodes>
          <leafValues>
            2.7002859115600586e-01 -8.4996783733367920e-01</leafValues></_>
        <_>
          <internalNodes>
            0 -1 46 1.3020180165767670e-02</internalNodes>
          <leafValues>
            -7.3020744323730469e-01 3.2469153404235840e-01</leafValues></_></weakClassifiers></_>
    <!-- stage 11 -->
    <_>
      <maxWeakCount>9</maxWeakCount>
      <stageThreshold>-2.3441421985626221e+00</stageThreshold>
      <weakClassifiers>
        <_>
          <internalNodes>
            0 -1 69 -4.2787427082657814e-03</internalNodes>
          <leafValues>
            5.3642386198043823e-01 -7.6434445381164551e-01</leafValues></_>
        <_>
          <internalNodes>
            0 -1 16 4.2136047035455704e-02</internalNodes>
          <leafValues>
            -7.9214954376220703e-01 3.6601892113685608e-01</leafValues></_>
        <_>
          <internalNodes>
            0 -1 84 9.6784736961126328e-03</internalNodes>
          <leafValues>
            -7.2455042600631714e-01 3.7584421038627625e-01</leafValues></_>
        <_>
          <internalNodes>
            0 -1 0 6.2752103805541992e-01</internalNodes>
          <leafValues>
            -7.7013373374938965e-01 4.5942708849906921e-01</leafValues></_>
        <_>
          <internalNodes>
            0 -1 5 -5.4413862526416779e-03</internalNodes>
          <leafValues>
            2.8398877382278442e-01 -8.3584505319595337e-01</leafValues></_>
        <_>
          <internalNodes>
            0 -1 47 3.3201507903868333e-05</internalNodes>
          <leafValues>
            -6.7736274003982544e-01 3.1863614916801453e-01</leafValues></_>
        <_>
          <internalNodes>
            0 -1 30 -3.6582678148988634e-05</internalNodes>
          <leafValues>
            2.4828799068927765e-01 -7.8567820787429810e-01</leafValues></_>
        <_>
          <internalNodes>
            0 -1 43 3.3351068850606680e-05</internalNodes>
          <leafValues>
            -8.3776587247848511e-01 2.0891331136226654e-01</leafValues></_>
        <_>
          <internalNodes>
            0 -1 41 -1.1104438453912735e-02</internalNodes>
          <leafValues>
            5.6688052415847778e-01 -4.0650570392608643e-01</leafValues></_></weakClassifiers></_>
    <!-- stage 12 -->
    <_>
      <maxWeakCount>10</maxWeakCount>
      <stageThreshold>-2.7777478694915771e+00</stageThreshold>
      <weakClassifiers>
        <_>
          <internalNodes>
            0 -1 52 4.8182788304984570e-03</internalNodes>
          <leafValues>
            -8.3181673288345337e-01 3.9602479338645935e-01</leafValues></_>
        <_>
          <internalNodes>
            0 -1 87 1.2578344903886318e-02</internalNodes>
          <leafValues>
            -7.3954641819000244e-01 3.6443144083023071e-01</leafValues></_>
        <_>
          <internalNodes>
            0 -1 27 -3.2992228865623474e-02</internalNodes>
          <leafValues>
            3.6326232552528381e-01 -7.5356811285018921e-01</leafValues></_>
        <_>
          <internalNodes>
            0 -1 1 3.1100708246231079e-01</internalNodes>
          <leafValues>
            -7.8019243478775024e-01 3.6456060409545898e-01</leafValues></_>
        <_>
          <internalNodes>
            0 -1 25 -1.7993133951677009e-05</internalNodes>
          <leafValues>
            3.1642547249794006e-01 -7.6328802108764648e-01</leafValues></_>
        <_>
          <internalNodes>
            0 -1 65 -2.1967580541968346e-03</internalNodes>
          <leafValues>
            3.0057212710380554e-01 -6.9920331239700317e-01</leafValues></_>
        <_>
          <internalNodes>
            0 -1 89 -2.9472107067704201e-02</internalNodes>
          <leafValues>
            2.7078518271446228e-01 -8.7395948171615601e-01</leafValues></_>
        <_>
          <internalNodes>
            0 -1 35 3.9711399003863335e-03</internalNodes>
          <leafValues>
            -5.9460401535034180e-01 3.5765919089317322e-01</leafValues></_>
        <_>
          <internalNodes>
            0 -1 61 1.0042231588158756e-04</internalNodes>
          <leafValues>
            -8.7817907333374023e-01 2.4262416362762451e-01</leafValues></_>
        <_>
          <internalNodes>
            0 -1 80 -2.1386626176536083e-03</internalNodes>
          <leafValues>
            5.0492441654205322e-01 -4.1966784000396729e-01</leafValues></_></weakClassifiers></_>
    <!-- stage 13 -->
    <_>
      <maxWeakCount>10</maxWeakCount>
      <stageThreshold>-2.0269138813018799e+00</stageThreshold>
      <weakClassifiers>
        <_>
          <internalNodes>
            0 -1 48 -3.6430628970265388e-03</internalNodes>
          <leafValues>
            3.6482259631156921e-01 -7.9100143909454346e-01</leafValues></_>
        <_>
          <internalNodes>
            0 -1 9 -2.9451316222548485e-02</internalNodes>
          <leafValues>
            3.5285314917564392e-01 -7.2818034887313843e-01</leafValues></_>
        <_>
          <internalNodes>
            0 -1 59 5.1400832831859589e-02</internalNodes>
          <leafValues>
            -7.9858541488647461e-01 3.3681422472000122e-01</leafValues></_>
        <_>
          <internalNodes>
            0 -1 73 -9.1074973170179874e-05</internalNodes>
          <leafValues>
            2.8233614563941956e-01 -8.8092863559722900e-01</leafValues></_>
        <_>
          <internalNodes>
            0 -1 42 4.7649713233113289e-03</internalNodes>
          <leafValues>
            -4.8767620325088501e-01 5.2495199441909790e-01</leafValues></_>
        <_>
          <internalNodes>
            0 -1 79 1.8740880477707833e-05</internalNodes>
          <leafValues>
            -7.1007084846496582e-01 3.3299353718757629e-01</leafValues></_>
        <_>
          <internalNodes>
            0 -1 23 3.9506070315837860e-02</internalNodes>
          <leafValues>
            -8.1398350000381470e-01 2.6333108544349670e-01</leafValues></_>
        <_>
          <internalNodes>
            0 -1 13 2.0374841988086700e-02</internalNodes>
          <leafValues>
            -8.4641921520233154e-01 2.0733791589736938e-01</leafValues></_>
        <_>
          <internalNodes>
            0 -1 55 -3.8910871371626854e-03</internalNodes>
          <leafValues>
            5.5231273174285889e-01 -3.8899883627891541e-01</leafValues></_>
        <_>
          <internalNodes>
            0 -1 64 -1.7331407964229584e-01</internalNodes>
          <leafValues>
            2.2184044122695923e-01 -7.9773277044296265e-01</leafValues></_></weakClassifiers></_></stages>
  <features>
    <_>
      <rects>
        <_>
          0 3 24 20 -1.</_>
        <_>
          8 3 8 20 3.</_></rects>
      <tilted>0</tilted></_>
    <_>
      <rects>
        <_>
          0 4 24 10 -1.</_>
        <_>
          6 4 12 10 2.</_></rects>
      <tilted>0</tilted></_>
    <_>
      <rects>
        <_>
          0 4 24 13 -1.</_>
        <_>
          6 4 12 13 2.</_></rects>
      <tilted>0</tilted></_>
    <_>
      <rects>
        <_>
          0 4 18 19 -1.</_>
        <_>
          6 4 6 19 3.</_></rects>
      <tilted>0</tilted></_>
    <_>
      <rects>
        <_>
          0 5 24 3 -1.</_>
        <_>
          8 5 8 3 3.</_></rects>
      <tilted>0</tilted></_>
    <_>
      <rects>
        <_>
          0 14 10 4 -1.</_>
        <_>
          0 16 10 2 2.</_></rects>
      <tilted>0</tilted></_>
    <_>
      <rects>
        <_>
          0 14 23 6 -1.</_>
        <_>
          0 17 23 3 2.</_></rects>
      <tilted>0</tilted></_>
    <_>
      <rects>
        <_>
          1 2 8 19 -1.</_>
        <_>
          5 2 4 19 2.</_></rects>
      <tilted>0</tilted></_>
    <_>
      <rects>
        <_>
          1 4 21 5 -1.</_>
        <_>
          8 4 7 5 3.</_></rects>
      <tilted>0</tilted></_>
    <_>
      <rects>
        <_>
          1 6 8 1 -1.</_>
        <_>
          1 6 4 1 2.</_></rects>
      <tilted>1</tilted></_>
    <_>
      <rects>
        <_>
          1 6 12 15 -1.</_>
        <_>
          5 11 4 5 9.</_></rects>
      <tilted>0</tilted></_>
    <_>
      <rects>
        <_>
          1 7 8 13 -1.</_>
        <_>
          5 7 4 13 2.</_></rects>
      <tilted>0</tilted></_>
    <_>
      <rects>
        <_>
          1 7 7 12 -1.</_>
        <_>
          1 11 7 4 3.</_></rects>
      <tilted>0</tilted></_>
    <_>
      <rects>
        <_>
          1 13 16 3 -1.</_>
        <_>
          5 13 8 3 2.</_></rects>
      <tilted>0</tilted></_>
    <_>
      <rects>
        <_>
          2 3 4 17 -1.</_>
        <_>
          4 3 2 17 2.</_></rects>
      <tilted>0</tilted></_>
    <_>
      <rects>
        <_>
          3 0 18 4 -1.</_>
        <_>
          3 2 18 2 2.</_></rects>
      <tilted>0</tilted></_>
    <_>
      <rects>
        <_>
          3 11 8 10 -1.</_>
        <_>
          5 11 4 10 2.</_></rects>
      <tilted>0</tilted></_>
    <_>
      <rects>
        <_>
          4 0 20 4 -1.</_>
        <_>
          9 5 10 4 2.</_></rects>
      <tilted>1</tilted></_>
    <_>
      <rects>
        <_>
          4 0 14 2 -1.</_>
        <_>
          4 1 14 1 2.</_></rects>
      <tilted>0</tilted></_>
    <_>
      <rects>
        <_>
          4 0 16 4 -1.</_>
        <_>
          4 2 16 2 2.</_></rects>
      <tilted>0</tilted></_>
    <_>
      <rects>
        <_>
          4 4 8 4 -1.</_>
        <_>
          4 4 4 4 2.</_></rects>
      <tilted>1</tilted></_>
    <_>
      <rects>
        <_>
          4 4 4 20 -1.</_>
        <_>
          4 9 4 10 2.</_></rects>
      <tilted>0</tilted></_>
    <_>
      <rects>
        <_>
          4 4 18 4 -1.</_>
        <_>
          10 4 6 4 3.</_></rects>
      <tilted>0</tilted></_>
    <_>
      <rects>
        <_>
          4 5 15 3 -1.</_>
        <_>
          9 5 5 3 3.</_></rects>
      <tilted>0</tilted></_>
    <_>
      <rects>
        <_>
          4 5 10 10 -1.</_>
        <_>
          4 5 5 5 2.</_>
        <_>
          9 10 5 5 2.</_></rects>
      <tilted>0</tilted></_>
    <_>
      <rects>
        <_>
          4 14 1 2 -1.</_>
        <_>
          4 15 1 1 2.</_></rects>
      <tilted>0</tilted></_>
    <_>
      <rects>
        <_>
          5 0 8 5 -1.</_>
        <_>
          5 0 4 5 2.</_></rects>
      <tilted>1</tilted></_>
    <_>
      <rects>
        <_>
          5 5 8 10 -1.</_>
        <_>
          5 5 4 5 2.</_>
        <_>
          9 10 4 5 2.</_></rects>
      <tilted>0</tilted></_>
    <_>
      <rects>
        <_>
          5 16 6 2 -1.</_>
        <_>
          5 16 6 1 2.</_></rects>
      <tilted>1</tilted></_>
    <_>
      <rects>
        <_>
          5 17 1 2 -1.</_>
        <_>
          5 18 1 1 2.</_></rects>
      <tilted>0</tilted></_>
    <_>
      <rects>
        <_>
          5 18 1 2 -1.</_>
        <_>
          5 19 1 1 2.</_></rects>
      <tilted>0</tilted></_>
    <_>
      <rects>
        <_>
          5 18 6 4 -1.</_>
        <_>
          5 18 3 2 2.</_>
        <_>
          8 20 3 2 2.</_></rects>
      <tilted>0</tilted></_>
    <_>
      <rects>
        <_>
          5 21 15 2 -1.</_>
        <_>
          10 21 5 2 3.</_></rects>
      <tilted>0</tilted></_>
    <_>
      <rects>
        <_>
          6 8 1 6 -1.</_>
        <_>
          6 11 1 3 2.</_></rects>
      <tilted>0</tilted></_>
    <_>
      <rects>
        <_>
          6 9 5 4 -1.</_>
        <_>
          5 10 5 2 2.</_></rects>
      <tilted>1</tilted></_>
    <_>
      <rects>
        <_>
          6 19 6 4 -1.</_>
        <_>
          6 19 3 2 2.</_>
        <_>
          9 21 3 2 2.</_></rects>
      <tilted>0</tilted></_>
    <_>
      <rects>
        <_>
          8 0 16 2 -1.</_>
        <_>
          12 4 8 2 2.</_></rects>
      <tilted>1</tilted></_>
    <_>
      <rects>
        <_>
          8 0 16 8 -1.</_>
        <_>
          12 4 8 8 2.</_></rects>
      <tilted>1</tilted></_>
    <_>
      <rects>
        <_>
          8 11 2 4 -1.</_>
        <_>
          9 11 1 4 2.</_></rects>
      <tilted>0</tilted></_>
    <_>
      <rects>
        <_>
          8 11 4 9 -1.</_>
        <_>
          9 11 2 9 2.</_></rects>
      <tilted>0</tilted></_>
    <_>
      <rects>
        <_>
          8 12 4 3 -1.</_>
        <_>
          9 12 2 3 2.</_></rects>
      <tilted>0</tilted></_>
    <_>
      <rects>
        <_>
          8 16 7 6 -1.</_>
        <_>
          8 18 7 2 3.</_></rects>
      <tilted>0</tilted></_>
    <_>
      <rects>
        <_>
          8 22 16 2 -1.</_>
        <_>
          8 22 8 1 2.</_>
        <_>
          16 23 8 1 2.</_></rects>
      <tilted>0</tilted></_>
    <_>
      <rects>
        <_>
          9 0 1 2 -1.</_>
        <_>
          9 1 1 1 2.</_></rects>
      <tilted>0</tilted></_>
    <_>
      <rects>
        <_>
          9 0 8 8 -1.</_>
        <_>
          11 2 4 8 2.</_></rects>
      <tilted>1</tilted></_>
    <_>
      <rects>
        <_>
          9 10 3 4 -1.</_>
        <_>
          10 10 1 4 3.</_></rects>
      <tilted>0</tilted></_>
    <_>
      <rects>
        <_>
          10 0 3 12 -1.</_>
        <_>
          10 3 3 6 2.</_></rects>
      <tilted>0</tilted></_>
    <_>
      <rects>
        <_>
          10 7 2 1 -1.</_>
        <_>
          11 7 1 1 2.</_></rects>
      <tilted>0</tilted></_>
    <_>
      <rects>
        <_>
          10 11 3 2 -1.</_>
        <_>
          11 12 1 2 3.</_></rects>
      <tilted>1</tilted></_>
    <_>
      <rects>
        <_>
          10 11 4 13 -1.</_>
        <_>
          11 11 2 13 2.</_></rects>
      <tilted>0</tilted></_>
    <_>
      <rects>
        <_>
          10 12 4 2 -1.</_>
        <_>
          11 12 2 2 2.</_></rects>
      <tilted>0</tilted></_>
    <_>
      <rects>
        <_>
          10 12 4 6 -1.</_>
        <_>
          11 12 2 6 2.</_></rects>
      <tilted>0</tilted></_>
    <_>
      <rects>
        <_>
          10 12 4 7 -1.</_>
        <_>
          11 12 2 7 2.</_></rects>
      <tilted>0</tilted></_>
    <_>
      <rects>
        <_>
          11 11 12 5 -1.</_>
        <_>
          15 11 4 5 3.</_></rects>
      <tilted>0</tilted></_>
    <_>
      <rects>
        <_>
          11 12 8 12 -1.</_>
        <_>
          11 12 4 6 2.</_>
        <_>
          15 18 4 6 2.</_></rects>
      <tilted>0</tilted></_>
    <_>
      <rects>
        <_>
          12 10 3 4 -1.</_>
        <_>
          13 10 1 4 3.</_></rects>
      <tilted>0</tilted></_>
    <_>
      <rects>
        <_>
          12 11 3 4 -1.</_>
        <_>
          13 11 1 4 3.</_></rects>
      <tilted>0</tilted></_>
    <_>
      <rects>
        <_>
          13 5 9 18 -1.</_>
        <_>
          16 11 3 6 9.</_></rects>
      <tilted>0</tilted></_>
    <_>
      <rects>
        <_>
          13 8 1 12 -1.</_>
        <_>
          9 12 1 4 3.</_></rects>
      <tilted>1</tilted></_>
    <_>
      <rects>
        <_>
          13 12 9 8 -1.</_>
        <_>
          16 12 3 8 3.</_></rects>
      <tilted>0</tilted></_>
    <_>
      <rects>
        <_>
          13 18 6 4 -1.</_>
        <_>
          13 18 3 2 2.</_>
        <_>
          16 20 3 2 2.</_></rects>
      <tilted>0</tilted></_>
    <_>
      <rects>
        <_>
          14 0 1 2 -1.</_>
        <_>
          14 1 1 1 2.</_></rects>
      <tilted>0</tilted></_>
    <_>
      <rects>
        <_>
          14 0 10 8 -1.</_>
        <_>
          12 2 10 4 2.</_></rects>
      <tilted>1</tilted></_>
    <_>
      <rects>
        <_>
          14 5 10 11 -1.</_>
        <_>
          19 5 5 11 2.</_></rects>
      <tilted>0</tilted></_>
    <_>
      <rects>
        <_>
          14 7 10 17 -1.</_>
        <_>
          19 7 5 17 2.</_></rects>
      <tilted>0</tilted></_>
    <_>
      <rects>
        <_>
          14 10 4 1 -1.</_>
        <_>
          14 10 2 1 2.</_></rects>
      <tilted>1</tilted></_>
    <_>
      <rects>
        <_>
          14 11 8 1 -1.</_>
        <_>
          16 13 4 1 2.</_></rects>
      <tilted>1</tilted></_>
    <_>
      <rects>
        <_>
          14 12 2 1 -1.</_>
        <_>
          15 12 1 1 2.</_></rects>
      <tilted>0</tilted></_>
    <_>
      <rects>
        <_>
          15 6 3 3 -1.</_>
        <_>
          15 7 3 1 3.</_></rects>
      <tilted>0</tilted></_>
    <_>
      <rects>
        <_>
          15 11 2 3 -1.</_>
        <_>
          14 12 2 1 3.</_></rects>
      <tilted>1</tilted></_>
    <_>
      <rects>
        <_>
          16 0 8 16 -1.</_>
        <_>
          12 4 8 8 2.</_></rects>
      <tilted>1</tilted></_>
    <_>
      <rects>
        <_>
          16 10 8 2 -1.</_>
        <_>
          16 10 4 2 2.</_></rects>
      <tilted>1</tilted></_>
    <_>
      <rects>
        <_>
          16 11 6 10 -1.</_>
        <_>
          19 11 3 10 2.</_></rects>
      <tilted>0</tilted></_>
    <_>
      <rects>
        <_>
          16 15 1 2 -1.</_>
        <_>
          16 16 1 1 2.</_></rects>
      <tilted>0</tilted></_>
    <_>
      <rects>
        <_>
          16 20 1 2 -1.</_>
        <_>
          16 21 1 1 2.</_></rects>
      <tilted>0</tilted></_>
    <_>
      <rects>
        <_>
          17 1 1 2 -1.</_>
        <_>
          17 2 1 1 2.</_></rects>
      <tilted>0</tilted></_>
    <_>
      <rects>
        <_>
          17 7 2 16 -1.</_>
        <_>
          17 11 2 8 2.</_></rects>
      <tilted>0</tilted></_>
    <_>
      <rects>
        <_>
          17 10 1 2 -1.</_>
        <_>
          17 11 1 1 2.</_></rects>
      <tilted>0</tilted></_>
    <_>
      <rects>
        <_>
          18 1 5 14 -1.</_>
        <_>
          18 8 5 7 2.</_></rects>
      <tilted>0</tilted></_>
    <_>
      <rects>
        <_>
          18 2 1 2 -1.</_>
        <_>
          18 3 1 1 2.</_></rects>
      <tilted>0</tilted></_>
    <_>
      <rects>
        <_>
          18 7 2 3 -1.</_>
        <_>
          17 8 2 1 3.</_></rects>
      <tilted>1</tilted></_>
    <_>
      <rects>
        <_>
          18 11 4 8 -1.</_>
        <_>
          20 11 2 8 2.</_></rects>
      <tilted>0</tilted></_>
    <_>
      <rects>
        <_>
          18 12 6 3 -1.</_>
        <_>
          18 12 3 3 2.</_></rects>
      <tilted>1</tilted></_>
    <_>
      <rects>
        <_>
          18 14 1 2 -1.</_>
        <_>
          18 15 1 1 2.</_></rects>
      <tilted>0</tilted></_>
    <_>
      <rects>
        <_>
          19 8 4 5 -1.</_>
        <_>
          20 9 2 5 2.</_></rects>
      <tilted>1</tilted></_>
    <_>
      <rects>
        <_>
          20 0 3 20 -1.</_>
        <_>
          15 5 3 10 2.</_></rects>
      <tilted>1</tilted></_>
    <_>
      <rects>
        <_>
          20 7 4 9 -1.</_>
        <_>
          17 10 4 3 3.</_></rects>
      <tilted>1</tilted></_>
    <_>
      <rects>
        <_>
          21 15 2 7 -1.</_>
        <_>
          21 15 1 7 2.</_></rects>
      <tilted>1</tilted></_>
    <_>
      <rects>
        <_>
          22 7 2 6 -1.</_>
        <_>
          22 7 2 3 2.</_></rects>
      <tilted>1</tilted></_>
    <_>
      <rects>
        <_>
          23 1 1 12 -1.</_>
        <_>
          23 1 1 6 2.</_></rects>
      <tilted>1</tilted></_>
    <_>
      <rects>
        <_>
          23 3 1 12 -1.</_>
        <_>
          23 3 1 6 2.</_></rects>
      <tilted>1</tilted></_></features></cascade>
</opencv_storage>
